{
  "layers": [
    {
      "layer": {
        "type": "FullyConnectedLayer",
        "weights": {
          "linear_index": {
            "dimensions": {
              "rows": 10,
              "columns": 784
            },
            "row_stride": 784,
            "col_stride": 1,
            "offset": 0
          },
          "elements": [
            0.00034159549668154744,
            0.00047024173115506383,
            0.0012138837853994944,
            0.00020569074122974183,
            0.0002355801960556436,
            0.0006811694899512243,
            0.000862595452829677,
            0.00040015752175457536,
            0.001215379966423261,
            0.0007942684870257365,
            0.000443817467731826,
            0.0006321440957052459,
            0.0004312628055185453,
            0.000026343566359332545,
            0.0007985120062570519,
            0.00025996312713305093,
            0.0003101703705311748,
            0.0010953211435768275,
            0.0009976922626566394,
            0.0004117465015098526,
            0.001156346411772532,
            0.001005465425816891,
            0.000818327068769454,
            0.00022243623832790888,
            0.000505161968747261,
            0.00010877615638616284,
            0.0010337256523976234,
            0.0005774793141325477,
            0.0009569728555446708,
            0.0005470053925497779,
            0.0001185839037811707,
            0.00001656699173665159,
            0.00037169317862858673,
            0.0000878875556936404,
            0.0005616131109584682,
            0.000760753249631886,
            0.00006718569373937682,
            0.0005590569795880081,
            0.000629808577307402,
            0.0002854588641608536,
            0.0005498921790160272,
            -0.0002861550184676372,
            -0.0013382178339528589,
            -0.0009137827754337838,
            -0.0005230294033724883,
            0.0005174302231655501,
            0.0009340360776010852,
            0.0010243658564473822,
            0.0012040861047241472,
            0.0004169244226824734,
            0.000047678188142549134,
            0.0005912527753935731,
            0.000019365614361172407,
            0.0005204090232209297,
            0.0005021414982256205,
            0.000025106137761815356,
            0.0005769848278809359,
            0.0010874419988583788,
            0.0005244905966126622,
            0.0009748479367205972,
            0.0002672406976864023,
            0.0010963790961272546,
            0.0004527704574675245,
            0.0003607238283308711,
            0.00007861677891658899,
            0.001255039745887508,
            0.0009260346202131223,
            0.0004121671710631597,
            -0.0013434493139624696,
            -0.0013983566368574586,
            -0.0036349455630737184,
            -0.004181996475596949,
            -0.007660604552764288,
            -0.008756144042374042,
            -0.007430933232709903,
            -0.004788989695344421,
            -0.0009823294469151697,
            0.0004659786139185943,
            0.00033219501138168203,
            -3.884378240313865e-6,
            0.0008972239065987317,
            0.0004478740103424316,
            0.00017673121710249214,
            0.0012387497692700404,
            0.0009506206027285656,
            0.00015547984986828036,
            0.0007599565779698033,
            0.00021016839958566257,
            0.0007865323139663429,
            0.0003417136778165305,
            0.0010031108941582151,
            -0.00020540825553740975,
            -0.00010076463906999605,
            0.00027741034719206895,
            -0.00048637693969015013,
            -0.0027507382132358673,
            -0.003776649945196322,
            -0.00695632136756111,
            -0.011665850897488866,
            -0.013286952961196866,
            -0.017893044729474738,
            -0.016509917802957557,
            -0.012121096456191308,
            -0.0065361696176591405,
            -0.001833835702415439,
            -0.0018106642231965765,
            0.00024555258424679326,
            0.0011280271540673632,
            0.00004749700505854777,
            0.001166883724644933,
            0.0003215929785691042,
            0.00020700075133611576,
            0.0006478551681369866,
            0.0007326909402884739,
            0.00042573120586544686,
            0.00027172850701641946,
            0.0002394255264962837,
            0.00003388383530807853,
            -0.0004066084106761034,
            -0.0019463785834854036,
            -0.002594427558836623,
            -0.006295478493069675,
            -0.008948621257076487,
            -0.005643824450889245,
            -0.004846422576358014,
            -0.005488950178520526,
            -0.006952149431647233,
            -0.01205418950851984,
            -0.008789330486873938,
            0.004930489442912845,
            0.009453785435735027,
            0.013984004536454611,
            0.012450304362495042,
            0.007406625369722384,
            0.0014068204869068322,
            0.0012667386050410063,
            0.00016489658552466227,
            0.00015173179019275636,
            0.0005103508339355312,
            0.0008728829543410413,
            0.0012485296682853684,
            0.0010357315877361707,
            0.0003372687408777299,
            0.00005531614652183679,
            -0.0011343309543991218,
            -0.0026432672366660357,
            -0.009080799815459777,
            -0.012411951803707928,
            -0.01374559004933941,
            -0.016956213346248784,
            -0.01938378513352067,
            -0.017948497004815555,
            -0.01708963568510925,
            -0.01460753749867193,
            -0.00614064807812963,
            0.002509630250730979,
            0.011878473572630048,
            0.01979759998016715,
            0.02695384714182744,
            0.02746233768368823,
            0.017344246978378768,
            0.005023482579127878,
            -0.006261961749922009,
            -0.0026450720293900018,
            -0.004922889846495302,
            -0.0005717364442652495,
            0.00006885187386927125,
            0.0007886730553103517,
            0.0005861611093379434,
            0.0007327674579079868,
            0.001212509311101982,
            -0.0012046140352368166,
            -0.0042684043633182695,
            -0.008312211467673462,
            -0.016030360285465842,
            -0.017026345260305907,
            -0.021398116116476677,
            -0.02223301029388692,
            -0.025047732785126377,
            -0.02897961258561493,
            -0.0189687044704816,
            -0.017544348174295153,
            -0.011134516712225272,
            0.00963754370543925,
            0.03105980522805688,
            0.03249582666636381,
            0.03244735982943144,
            0.03026956030861353,
            0.01840767809782429,
            0.006034341351885444,
            -0.006489372637792344,
            -0.006846722540772641,
            -0.008167118845375201,
            -0.0009000340145159404,
            -0.00046438899797103734,
            0.0003989326252845948,
            0.0006197536313475695,
            0.0008469033134268168,
            0.00046580763726557814,
            -0.0033931038138496246,
            -0.008383902071917665,
            -0.01237740983099643,
            -0.01797599101810556,
            -0.02276115638785911,
            -0.02385735081280254,
            -0.026773255490080843,
            -0.036927698249192134,
            -0.023914715686182017,
            -0.02054450730488639,
            -0.018373039915498154,
            -0.00853041304642559,
            0.013927204785508582,
            0.02188877613457544,
            0.0311729607217514,
            0.031529897424117125,
            0.037424319367161694,
            0.025134599637322508,
            0.009825575377808314,
            -0.007810985181176993,
            -0.011756616657173133,
            -0.010167234695205422,
            -0.006003078650093611,
            -0.0009278963450498764,
            0.0002813105777013402,
            0.001060387198586824,
            0.0006024057084902798,
            0.00044268015915428105,
            -0.004291488616121111,
            -0.010022863976180652,
            -0.01331575920675979,
            -0.015485242511672673,
            -0.023662063665594233,
            -0.019621318924288457,
            -0.029533661479663208,
            -0.02599694201247426,
            -0.016970144525335486,
            -0.02291985382020204,
            -0.017174657890413825,
            -0.005906366903574034,
            0.0018418179340674663,
            -0.00017605968345753943,
            0.0013731769042732015,
            0.00847825991419535,
            0.02408346881007217,
            0.02754458167473725,
            0.02391484281079994,
            0.008366642563875617,
            -0.001355294773248274,
            -0.005192179458141848,
            -0.006710279506335752,
            0.0002952076257928736,
            0.0012749471920464185,
            0.0007631575298985752,
            -0.00009101731284725162,
            0.0007509301701450464,
            -0.002708122121558052,
            -0.008246212174374476,
            -0.014280615331293248,
            -0.012125516633462329,
            -0.01727534949569758,
            -0.02287222314925318,
            -0.03309126783436726,
            -0.024096693881030105,
            -0.0032173080759576277,
            -0.012187334104026238,
            -0.002322511146214996,
            0.0007044511813050142,
            -0.011659395548538657,
            -0.03151166904884052,
            -0.03186043513813767,
            -0.013217428707669572,
            0.012912320549377698,
            0.03510356167452953,
            0.03775322854934247,
            0.02866976585029498,
            0.01144944096221458,
            0.00282024119026818,
            -0.0027622293359465975,
            0.00043674865029323033,
            0.0012221959300465113,
            0.0010953943698202254,
            0.001091037952898905,
            0.0005282726982999692,
            -0.00261330722952673,
            -0.009562879248526758,
            -0.014617874169921276,
            -0.008215445851209317,
            -0.007035742282244232,
            -0.0181280996134858,
            -0.017293764109720784,
            -0.010510996218170114,
            -0.009561322321482596,
            0.002028647769195879,
            0.005880593789231969,
            -0.008998011763733736,
            -0.05168104475652687,
            -0.06789071109272532,
            -0.06190595712811559,
            -0.03444808881637109,
            -0.0017036962945512412,
            0.03644212541935741,
            0.05541039667042421,
            0.050614458567692755,
            0.028465861584333577,
            0.007645563274120196,
            0.0006645665109128181,
            0.00037144363752246435,
            0.0007349542636016455,
            0.0003974021931911277,
            0.0003774602342245593,
            0.0009319363828906993,
            -0.005397609342383221,
            -0.010556359247897688,
            -0.008373842902831647,
            0.002060745062195376,
            -0.0008718034288382254,
            -0.01193004122894677,
            0.0002966580154295935,
            0.00005353307289632486,
            0.01042430733514324,
            0.006610855451600402,
            -0.01757618344011599,
            -0.0573618860347323,
            -0.08819093693415568,
            -0.09017882995799947,
            -0.08532187735337918,
            -0.051095426366525,
            -0.014092707863540716,
            0.03501856827975968,
            0.06052312219251429,
            0.06434748438424202,
            0.03725628493205952,
            0.012112579351542451,
            0.0014535104230658526,
            0.003053213416099201,
            0.00004637410151024334,
            0.000637957198043452,
            0.001238737838821781,
            -0.00010061050876137203,
            -0.0034602904437030157,
            -0.011672461746969818,
            -0.0007763669169354243,
            0.009348465914035023,
            0.0024193506205386567,
            0.007782187552630559,
            0.018755188165047555,
            0.014974671726988168,
            0.004825467610809785,
            -0.01404168814086604,
            -0.05415317052790301,
            -0.09564263250470832,
            -0.11410146256212404,
            -0.11231440344424168,
            -0.10471208390918216,
            -0.0695693941851628,
            -0.02362285175366168,
            0.039221716965254595,
            0.061354596597882984,
            0.06131566183040494,
            0.041264233329467805,
            0.014469535497549126,
            0.0017270270519795464,
            0.0019768006458674436,
            0.00015433047323674669,
            0.0005106653235570753,
            0.00006851471880704756,
            0.0006165028754726792,
            -0.0014659840289042024,
            -0.009619899941951605,
            0.001763285882880883,
            0.01810150491163777,
            0.017356134976844947,
            0.0275884301548956,
            0.03788925267653832,
            0.023006051461422795,
            -0.008124598839579103,
            -0.03332129470196024,
            -0.09208501895600016,
            -0.1242229590051887,
            -0.1351619931065769,
            -0.13570831576037173,
            -0.12386041559039251,
            -0.07250993171336986,
            -0.022745476945952393,
            0.03980744506761493,
            0.06414391088665658,
            0.05789696203344997,
            0.03616627745940864,
            0.01499999242815914,
            0.0005470035067112414,
            0.0009026848232231508,
            0.0005098480773467413,
            0.0005921647404813519,
            0.0003646275051095296,
            0.0005751089924410093,
            -0.001298121653293226,
            -0.0071645367199475,
            0.006668786353314916,
            0.025938521764466944,
            0.03441239647277842,
            0.04490520945553356,
            0.04324901708781829,
            0.012181016688189552,
            -0.026291567614882275,
            -0.0788014713390242,
            -0.12185749138867068,
            -0.14079447847641716,
            -0.1480993894215008,
            -0.1455107030851295,
            -0.12864283789188694,
            -0.07459332813340153,
            -0.017350773738671374,
            0.03050614364882844,
            0.05289204128124712,
            0.04618392072490571,
            0.03008703951719984,
            0.0153069852172426,
            -0.0003702708896806752,
            0.0010054433406288098,
            0.0005751480221158673,
            0.00011198168365954218,
            0.0010200707095978244,
            0.00023527371586345508,
            -0.0017642514396322229,
            -0.0056613104155493815,
            0.015201111525351916,
            0.03918524689534392,
            0.04828446930935267,
            0.06086824100786667,
            0.03905745063863371,
            -0.007789296424831564,
            -0.060394975500774134,
            -0.10233457545888223,
            -0.13254166927266128,
            -0.14188472428115528,
            -0.14566336517011147,
            -0.13722164790143135,
            -0.11202666055269592,
            -0.061898956768229235,
            -0.01216843592154897,
            0.030564388536998367,
            0.036252886845052366,
            0.027630960379567804,
            0.02308547815768677,
            0.012706329027119849,
            -0.001869015056045459,
            -7.199293582481275e-6,
            0.00013778719611041534,
            0.001124991700827501,
            0.001050436774273123,
            0.00010906641290997432,
            0.00025945660606202146,
            -0.004450283815186805,
            0.023276776562531548,
            0.04577401323467826,
            0.06624960074806199,
            0.06315830142872049,
            0.024059620554135155,
            -0.026463845126422192,
            -0.06959811853221631,
            -0.09510646356360476,
            -0.11755149244373024,
            -0.13370992532814507,
            -0.1294224915430694,
            -0.11225995735352393,
            -0.0812366628815798,
            -0.043161521349118326,
            -0.005771980441860078,
            0.02626271348518612,
            0.02913949743534109,
            0.015209831697927376,
            0.019235256437726007,
            0.009993164190190217,
            -0.000105481650363898,
            0.000213324233542,
            0.0008303964840251455,
            0.0011329115354375748,
            0.0007331594298186288,
            0.0010781956328020986,
            -0.00005224536507957455,
            0.0007104048149768805,
            0.032566510439717776,
            0.052987041927510824,
            0.06781856066344025,
            0.06373209511453631,
            0.025626794792393284,
            -0.026214765975586037,
            -0.05806714269567951,
            -0.07925608822976159,
            -0.10708171035888377,
            -0.1209394700372442,
            -0.10743435270647954,
            -0.07765510387812419,
            -0.0555331857831191,
            -0.02278893321016552,
            0.0056322437246111275,
            0.018896124472309463,
            0.011006950762403591,
            0.00830629765959834,
            0.013638606818251575,
            0.006784741913372361,
            -0.000234359212491102,
            0.0007307571975470634,
            0.0003092336790170141,
            0.0012255981317546055,
            0.0010325367350488145,
            0.0008448304553163126,
            -0.001726991802686906,
            0.007097029649872717,
            0.037098072452401695,
            0.05348121847922637,
            0.07029989090611474,
            0.06471295630499277,
            0.018678372793902703,
            -0.025826697872094115,
            -0.04726438871281356,
            -0.07146045333589507,
            -0.08985880022651797,
            -0.09355681570582536,
            -0.07393651701461204,
            -0.048580852240031634,
            -0.02307267521743035,
            -0.0043341196307727075,
            0.006937385200846564,
            0.0060270980777840655,
            -0.004533476706807603,
            0.0022146784787671235,
            0.007712959827179276,
            0.0037269231814157752,
            0.0012937510864844642,
            0.000985879669819812,
            0.00024731719087458794,
            0.0011473778883463518,
            0.001182210386037562,
            0.0001353311704100897,
            -0.0028901653189682157,
            0.007197904637678703,
            0.033299375210512905,
            0.04601069144504251,
            0.061948086000814515,
            0.058073589322966496,
            0.02805442686873627,
            -0.009341506188457638,
            -0.02856461829797596,
            -0.05526289191140102,
            -0.06564109249262336,
            -0.06202032292780464,
            -0.051114690457776835,
            -0.027910013774331457,
            -0.01283499520014413,
            -0.01224211013604949,
            -0.00393741186639196,
            -0.009637887873323347,
            -0.0051981092642416835,
            0.0022696490094465233,
            0.007380265467994125,
            0.001988069498177377,
            0.001580048287423315,
            0.0002670908306326555,
            0.0009681946095090844,
            0.000849526556954152,
            0.0008186271268788721,
            0.0007561636405502042,
            -0.00340442355739157,
            0.007931240563064436,
            0.0219376843926844,
            0.04236077254200395,
            0.04115148511686983,
            0.04522043799543389,
            0.034442410400262295,
            0.017689289785675952,
            -0.0010903173187561009,
            -0.010822328859710307,
            -0.01903488243899179,
            -0.03369059697522262,
            -0.022763927296487747,
            -0.00900298144968211,
            -0.010032213216238036,
            -0.016249865764569712,
            -0.013596182226444853,
            -0.010353074070917762,
            -0.0038257450603128057,
            0.0060079873237975845,
            0.002751491426335564,
            -0.001501957321385401,
            0.000774932510902596,
            0.001917705774432424,
            0.00009840676213788495,
            0.0005261103812901052,
            0.0008564854188482826,
            0.0008620225258435683,
            -0.003350285904823793,
            0.003889548501394517,
            0.018605542329955177,
            0.03201305035878161,
            0.04229444227959525,
            0.0402672404470966,
            0.04591263095620264,
            0.037374708314512575,
            0.017856877002402672,
            0.0014014940667140562,
            -0.01202354589222024,
            -0.017765121628557236,
            -0.01058616247633714,
            -0.005306822546625446,
            -0.010272434971680162,
            -0.008576469558004333,
            -0.012642217882701269,
            -0.005923565998900374,
            0.0035525729349162884,
            0.0038240053716539256,
            -0.0009476131438151608,
            -0.00032960408006912705,
            0.0019132834283442292,
            0.0033525336685824654,
            0.0003069226714567912,
            0.00012871713579189854,
            0.0006867517157030816,
            0.0005163378635325186,
            -0.0018044007123635796,
            0.005122945559834076,
            0.016965675273190706,
            0.02598050605332327,
            0.0270183111892294,
            0.03188282004280307,
            0.033568974831482405,
            0.0354437066408969,
            0.02342353474955551,
            0.016098103156645487,
            0.009664611092615847,
            -0.0022287120762339314,
            -0.001926085346940087,
            -0.004534299919691148,
            -0.009581878297556698,
            -0.012037712667910786,
            -0.005380506452909504,
            -0.0022725676595460997,
            -0.002550222330536175,
            -0.0004027874007532358,
            -0.0012501704045363396,
            -0.0006506424324836598,
            0.0009833939686343706,
            0.001807260888816832,
            0.0001629851526678595,
            0.0005381568518808857,
            0.0005963540412197194,
            0.0001808622277562023,
            0.0005784723389237554,
            -0.0001628831208876199,
            0.005445951027605989,
            0.008201827537196097,
            0.007157137011552913,
            0.00578943458195339,
            0.007560573618392221,
            0.00969044064172396,
            0.01118639287045715,
            0.01181089597987844,
            0.006108824839794751,
            -0.003101632698017844,
            -0.010130755845180748,
            -0.01590356760627232,
            -0.01324476126037163,
            -0.007577523862819201,
            -0.0072742441130988515,
            -0.00950383687641269,
            -0.005388770822578316,
            -0.0016224984714964738,
            -0.002882979658670421,
            0.0008956384282850266,
            0.0008874371305129391,
            0.00016975561412173605,
            0.000574282731626225,
            0.0008489697025814514,
            0.0010356539890688042,
            0.0004600301492775128,
            -0.0000414497866550513,
            -0.0009434979307349356,
            -0.0042739830535348695,
            -0.005121524457469295,
            -0.008675611149253916,
            -0.017755530356918948,
            -0.028062866005577152,
            -0.034785454260165376,
            -0.022400901770990727,
            -0.013565623491975426,
            -0.015115174950880276,
            -0.015974881284461517,
            -0.018221307234132792,
            -0.02150579802543776,
            -0.014909236194087664,
            -0.012240725732714107,
            -0.008684131217732623,
            -0.005373452731260634,
            -0.0009709199774932,
            -0.0008643172467506234,
            0.0001365755920192131,
            0.00023236637469911084,
            0.00025838164281325046,
            0.0002714669280140142,
            0.0008440869445531367,
            0.000756546735915963,
            0.0009243078968799864,
            0.0007432926519377781,
            0.000225315887320077,
            0.0004075792538496419,
            -0.0007741354004474069,
            -0.0019684974678286457,
            -0.00575700745077445,
            -0.011194646598465353,
            -0.015895539492386992,
            -0.01827231769637336,
            -0.014616214904682245,
            -0.01476625934196062,
            -0.01646110898404993,
            -0.016624815310219965,
            -0.01608569773480327,
            -0.015107986416896152,
            -0.008795191292300969,
            -0.00615156305949211,
            -0.0030444121445590733,
            0.00034076514688102517,
            0.0002319202133428728,
            0.0005159688585817659,
            -0.00009687355440492906,
            0.00029976331093216216,
            0.0006588104282916385,
            0.0008555081411752996,
            0.0006560127603175812,
            0.00032794848845467406,
            0.0009466609731701792,
            0.0010440215425055136,
            0.0003859150778301553,
            -0.00012232763867579314,
            0.00039757225347748353,
            -0.002566156764968489,
            -0.005220178424673374,
            -0.005813483300156417,
            -0.005947514772372639,
            -0.006785261128895534,
            -0.004614414167243979,
            -0.005226662191725127,
            -0.00835806926797768,
            -0.007805668182806136,
            -0.008268772265321985,
            -0.007934955460455483,
            -0.005776605111754384,
            -0.00253927175975254,
            -0.0015693959405298167,
            0.0005459558906938646,
            0.000388498953904517,
            0.00014204102110825778,
            0.0007777370488318455,
            0.0007268723453785186,
            0.0006463813824041894,
            0.00004386842779340407,
            0.0008095493437657534,
            0.0006045901441970987,
            0.0008945958749423909,
            0.00034299005523925414,
            0.000708718012155282,
            0.0008860029950686855,
            -0.0004900785206707696,
            -0.001036511515111329,
            -0.0013747846719351572,
            -0.00021318300803274716,
            -0.00015814892271403692,
            0.00010938650362953792,
            0.0007665289506405203,
            0.0004788511978453192,
            -0.000054985930501051525,
            -0.00022754802832442375,
            -0.0008712665636240889,
            -0.001166094619229712,
            -0.0014876290965082969,
            -0.0011277565988536617,
            0.00010604954086687222,
            0.0007009198483917516,
            0.000631931876095686,
            0.0006968346061219467,
            0.0006542196356438245,
            0.0012512557284641644,
            0.0005538625765141906,
            0.0006214695430960007,
            0.0007717120368231764,
            0.0009815059153304244,
            0.000890264294659281,
            0.0010264623203602382,
            0.0005396757612535332,
            0.0007658171440233879,
            0.0012166442728672696,
            0.00038958630769953066,
            0.000747432515616896,
            0.0010553888549323296,
            0.0009315860199368924,
            0.0004791534857222991,
            0.00008169344333611274,
            0.001146233622011562,
            0.0003084751784378803,
            0.00040989780452330144,
            0.0001799766378677414,
            0.0003448594273735479,
            0.0007662228665536296,
            0.0010596935924111863,
            0.00034880920890592663,
            0.0008529744780839478,
            0.00032482716873605917,
            0.0010776322053111017,
            0.0010649669715363144,
            0.0005507482422372863,
            4.54910840926281e-7,
            0.0007057121879012334,
            0.00007115403753764942,
            0.00014962533961686907,
            0.00044254368142693625,
            0.0008307802806171879,
            0.0011836926984461732,
            0.0004677404391944695,
            0.0003273234355709275,
            0.0010682771209930442,
            0.0011706282590723302,
            0.0005297677449884891,
            0.0005308667772403815,
            0.0003741002663274657,
            0.0008404747861491862,
            0.0003383356102354095,
            0.000687655776904354,
            -0.00004271379834692402,
            -0.00009765088962861387,
            0.001093933435327392,
            0.0006459412360018042,
            0.000871883915327582,
            0.00063585501395806,
            0.0005312297501765729,
            0.0008227356095809423,
            0.0011829994647386316,
            0.00022225730080653564,
            0.0012530226147777497,
            0.0005021707353916111,
            0.0011808898565295444,
            0.001043383240756296,
            0.0007620889458694505,
            0.0005773728041741417,
            0.0010787609333875274,
            0.0004413960110145448,
            0.0009744523534873592,
            0.00030430385915145356,
            0.0009597319079624576,
            0.0008033194919266548,
            0.0009988472399346318,
            0.0008803159892412906,
            0.0004490127212940698,
            0.0005142855344476429,
            -0.001487520156816914,
            -0.0008850804040892835,
            -0.0021365924078994535,
            -0.0018635597387940904,
            -0.003790616066627448,
            -0.005554113632714183,
            -0.0033392812831493056,
            -0.0013631120200203494,
            0.000765542289859806,
            0.0003779859465778384,
            0.0004609545686157633,
            0.0009920357623169737,
            0.000289978755422491,
            0.00032144346493521905,
            0.0003848600476306669,
            0.001153962066234576,
            0.0006360053730633088,
            0.001128757612480744,
            0.0002205746694617151,
            0.0001293596419598561,
            0.0006696391663543984,
            0.00043926029490058466,
            0.0011977535404770283,
            0.0007417143821185212,
            -0.003226296845498682,
            -0.00418142780354637,
            -0.004876720048917116,
            -0.005710309544740466,
            -0.007045807294858843,
            -0.00658661276605006,
            -0.009402056223219615,
            -0.009152533284912126,
            -0.008243539866126436,
            -0.007772496867157442,
            -0.007237675473112148,
            -0.006583988480932451,
            -0.003279133226877126,
            -0.0014004237385996194,
            0.0008427849486614031,
            0.0005477823554470488,
            0.00001843778859897252,
            0.000058458520961272875,
            0.0005903714778710245,
            0.0011711103633229509,
            0.0008250256651909728,
            0.0008179738992575691,
            0.0008785673888907244,
            0.0009260822290891012,
            0.0004110336161411376,
            0.0005373734484906597,
            -0.0005095874038037592,
            -0.0006251078504456192,
            -0.0019421761153708933,
            -0.005680694776232651,
            -0.00796422594840237,
            -0.006862201792951159,
            0.0011155834691971727,
            -0.002000838521606405,
            -0.005946099345770492,
            -0.005316810421765981,
            -0.002951414098243966,
            0.015920857156134074,
            0.02053171273352883,
            0.017750345754463985,
            0.004690802176557995,
            0.0051390306784274194,
            0.0035579900666536943,
            -0.0012473974168828548,
            0.000862246548907554,
            0.0007867204398688588,
            0.00045003021613511694,
            0.0001261398848410359,
            0.0004725476677334983,
            0.0008913097950124897,
            0.0009938881763116515,
            0.0007378474718069964,
            -0.00011232328259822152,
            -0.0013201712559533026,
            -0.00467900596411633,
            -0.0054388861946573835,
            -0.01034169241005585,
            -0.015829810992962743,
            -0.02772662796877722,
            -0.035380085934632766,
            -0.01991354521057226,
            -0.018968553519921872,
            -0.02559899645528632,
            -0.020955268984051582,
            -0.010609874017391472,
            0.014263162351968822,
            0.01982412187525795,
            0.03458653951869492,
            0.018301844519141013,
            0.00028156120136536253,
            -0.0015072276355269443,
            -0.00200216553836333,
            -0.0009342328247660736,
            -0.001136431089025003,
            0.001405644401168604,
            0.0006339458793044727,
            0.0012105183729729282,
            0.0008566353140938924,
            0.000665715292711185,
            -0.0004961822234484895,
            -0.0035515673563109983,
            -0.004853896596813298,
            -0.00927924270180777,
            -0.013947171864383866,
            -0.02174414426012847,
            -0.03342026770962869,
            -0.047683594842282864,
            -0.05421535878805856,
            -0.042997029254794886,
            -0.04092037604275739,
            -0.03815831162161175,
            -0.04311591505916775,
            -0.021786766244143843,
            -0.0037256548218501102,
            0.005757346563645064,
            0.02031758673150312,
            0.0007141063200573267,
            -0.012087693456203086,
            -0.014292519398667576,
            -0.008037439206914406,
            -0.005247574662588532,
            -0.001988808231256776,
            0.0007530102334551676,
            0.0003918133198584707,
            0.000612760229887813,
            0.0006620734173891946,
            -0.00005009220983589372,
            -0.0027988250889946368,
            -0.005792360107977243,
            -0.01030985002689799,
            -0.016146868153045835,
            -0.022517260518797263,
            -0.03150867044303854,
            -0.046824329016307786,
            -0.06110213954512428,
            -0.06501224805060409,
            -0.06057602282029007,
            -0.05569443122530337,
            -0.044027263809483304,
            -0.03750564515294882,
            -0.02298685396419612,
            -0.021127594755538125,
            -0.006191375521984895,
            -0.004778470480667854,
            -0.024116807079092657,
            -0.028837168466060308,
            -0.02291999397914786,
            -0.0153467727512441,
            -0.00953331511837154,
            -0.004576320369002015,
            -0.0009313814133645444,
            -0.000045695743829804305,
            0.0005712638995465485,
            0.000942053646839106,
            0.00107703347585624,
            -0.0024115854482956397,
            -0.008779631012081405,
            -0.013138731767595424,
            -0.018762329451602004,
            -0.02875769928890556,
            -0.037571060216218664,
            -0.04930506670820322,
            -0.06746546487888326,
            -0.07856588221139654,
            -0.07015971577949769,
            -0.05393653205877936,
            -0.02375089280776309,
            -0.005040037316511298,
            -0.0014307338172711102,
            -0.017335852177837133,
            -0.015066777347322514,
            -0.04197170243433132,
            -0.0619834259977753,
            -0.0526256994911471,
            -0.03273078733712876,
            -0.02052245315000392,
            -0.010959898503832438,
            -0.007819840192290494,
            0.0001367220326272458,
            0.0007636871690774352,
            0.000031174175570713604,
            0.0007347496760594799,
            0.0009403713012412208,
            -0.0015542824620604911,
            -0.006942377761403377,
            -0.01313194454306174,
            -0.018108668205713246,
            -0.02445774457331897,
            -0.03558008559306835,
            -0.04787308441509321,
            -0.06624624083021358,
            -0.0792703274705103,
            -0.06451396165352676,
            -0.03905070907819414,
            0.015617178721411535,
            0.04253841370617645,
            0.02559354701700189,
            -0.02206827430927785,
            -0.03228922663195539,
            -0.06691812601699701,
            -0.07711144663270018,
            -0.05981390806262759,
            -0.034083101918290656,
            -0.018437834020889218,
            -0.010427656042784204,
            -0.002831213343222334,
            0.0011573612273364823,
            0.00048360626513385566,
            0.000879321621650005,
            0.00006121230905890455,
            0.0005089376941020333,
            -0.0024563327798240255,
            -0.005581122015131102,
            -0.010359499376139418,
            -0.014846173296514328,
            -0.021904135066887417,
            -0.029023857414189353,
            -0.0435788039742784,
            -0.06807421483959325,
            -0.08167457920487727,
            -0.060296675763927096,
            -0.01595208859699203,
            0.06831416857115162,
            0.08171744693489778,
            0.0340259346521411,
            -0.022128462633495233,
            -0.055086415641595915,
            -0.07603628433130993,
            -0.0714515330362493,
            -0.04605087499334526,
            -0.02128938625018508,
            -0.009678857598804644,
            -0.0031779579300807315,
            -0.0006177089933702422,
            0.00014520399907635677,
            0.0004632698148662969,
            0.0005328729995965883,
            0.0003895591118476249,
            0.0008098538234695221,
            -0.0014033202720465348,
            -0.00480758910517097,
            -0.01041152671901037,
            -0.014632319237010296,
            -0.01993510950208076,
            -0.02775398070858324,
            -0.04750115084616187,
            -0.06914308756637352,
            -0.08370839007537173,
            -0.06590788467852204,
            0.004741169746528701,
            0.08941518930866672,
            0.09024998395894758,
            0.02518680262244927,
            -0.033308267338670684,
            -0.06909917529536441,
            -0.07817382782248332,
            -0.05759238317755127,
            -0.029515890430768302,
            -0.015052206219659869,
            -0.007033415466702825,
            -0.002061782836030744,
            0.0009051299010150532,
            0.0007768432419145477,
            0.0001341434752046368,
            0.000502409483209967,
            0.00042570446290318215,
            0.0006345639444999501,
            -0.0015738857591345251,
            -0.0042375126595936355,
            -0.00882113355554957,
            -0.012901245274530154,
            -0.016555712683377383,
            -0.029882625195357875,
            -0.0538500866752892,
            -0.07937145849775717,
            -0.08961657335987641,
            -0.06474163455010046,
            0.02401438019966657,
            0.10780892305372436,
            0.08097524709587053,
            -0.001587336714620392,
            -0.06339526076796859,
            -0.08732661631528116,
            -0.06950685517226904,
            -0.04296904321396716,
            -0.021643848692799828,
            -0.0117671346493076,
            -0.0065411430591101275,
            -0.0027625018048804783,
            0.00026524892166227064,
            0.00046711194125389447,
            0.0003620534526665816,
            0.0006033952206737485,
            0.0005591862985864139,
            0.0002189766525802798,
            -0.0010544419913139317,
            -0.0050152487106727706,
            -0.007647460544794722,
            -0.011277770136889189,
            -0.02111437837480989,
            -0.036595971449984374,
            -0.05983505813708527,
            -0.08440893898131589,
            -0.0934490981601367,
            -0.056115051757384134,
            0.055221617856017056,
            0.0944350409133305,
            0.047541305777206624,
            -0.04289287239626546,
            -0.09928292112477076,
            -0.0901466115606223,
            -0.05505899294074972,
            -0.034073208495829226,
            -0.01923511692654584,
            -0.011717943124367244,
            -0.0058328717836986736,
            -0.003249737386366742,
            -0.00017380051929768525,
            0.0011257943717402003,
            0.001182691488115518,
            0.0006552751907737409,
            0.0011852003454391302,
            0.00007556642497239313,
            -0.0006646255171572954,
            -0.003448773471028198,
            -0.007268927474745711,
            -0.012931575650635498,
            -0.02391812863579689,
            -0.04002166303545362,
            -0.05911582764545688,
            -0.07914143930032125,
            -0.08882679842889525,
            -0.051128828156387626,
            0.057635224491801515,
            0.07772800156733242,
            0.021901807992169738,
            -0.0861480105724614,
            -0.10823655879277395,
            -0.08322164352702506,
            -0.052909758722089265,
            -0.035349936579708384,
            -0.021798139100907568,
            -0.0118920252842621,
            -0.007596015250004262,
            -0.003976473182570338,
            -0.00032915611203634726,
            0.0002103934393590129,
            0.00011185622322815,
            0.00022558183595944897,
            0.0005807774618946115,
            0.000288543393254719,
            -0.0015421177022859165,
            -0.003862573340498364,
            -0.011259001085999592,
            -0.01722559317928245,
            -0.02874797920259293,
            -0.044656118479684,
            -0.05988188291815432,
            -0.07910672936376646,
            -0.0761831655237905,
            -0.01079651734869196,
            0.07302832917959012,
            0.08035858912185813,
            -0.004867448721897,
            -0.10801111562004354,
            -0.1023387462233096,
            -0.08055863778675315,
            -0.05752395301196297,
            -0.03841030113418559,
            -0.025938678233725088,
            -0.016079150199480793,
            -0.010614815390143823,
            -0.005863341067565973,
            -0.001517159360077921,
            0.00037338794205569694,
            0.00012115024300913817,
            0.00003075158959621573,
            0.0006606583485417387,
            0.0010135286591923792,
            0.0006836797040459756,
            -0.003661668579943187,
            -0.011795947710545276,
            -0.020918835462410093,
            -0.032351614072858366,
            -0.046831728057367725,
            -0.05983689543938404,
            -0.06879256505210476,
            -0.03341184160879776,
            0.02522437965673533,
            0.09020711089316633,
            0.07398387248124777,
            -0.025035753830230986,
            -0.10151490264287844,
            -0.09697916709812993,
            -0.08165684011006444,
            -0.06075229701658598,
            -0.04036683872958407,
            -0.028012666999869276,
            -0.014607039270541258,
            -0.00783112142939736,
            -0.005214423833825322,
            -0.0007258371283663087,
            0.0006223479392330963,
            0.0011524027638782474,
            0.0005816501218124947,
            0.00047118230076273975,
            0.0002777054266634986,
            -0.00027767984680470456,
            -0.0025873886398699304,
            -0.011605875119507869,
            -0.023405428318533004,
            -0.03764023028654456,
            -0.04752675898855028,
            -0.053880064438855825,
            -0.03779241772092879,
            0.003595667061804732,
            0.04778158435039026,
            0.09614346214938496,
            0.0501025158911811,
            -0.04383005458334318,
            -0.08950256089369987,
            -0.08567357268846215,
            -0.06989565614007429,
            -0.05399608221163563,
            -0.04281585911065863,
            -0.031281820206563574,
            -0.017152813421085263,
            -0.009923682664608056,
            -0.007074175050376529,
            -0.0014152229835258075,
            0.0010136733646741336,
            0.0003722094610588031,
            0.0000584360521829871,
            0.001096309050042751,
            0.0010591203696073575,
            0.000029143596884840113,
            -0.0036771095701241753,
            -0.013524898047798595,
            -0.03178855515743437,
            -0.046031408840768194,
            -0.047656761664395295,
            -0.04203557390314811,
            -0.005657313846697849,
            0.03213906113795027,
            0.05575945726832848,
            0.07857409406054028,
            0.02164878701176019,
            -0.05145709882878625,
            -0.07623928118840784,
            -0.0704092802058138,
            -0.06102726213254341,
            -0.0480196049579932,
            -0.034765293973903696,
            -0.029783290483563773,
            -0.019352778177370904,
            -0.012075337092801107,
            -0.007822933266878204,
            -0.0009095702846170576,
            0.00038930325011804376,
            0.0011773810633517983,
            0.0008379455724796221,
            0.0008002147158021876,
            0.0007717734979553149,
            -0.0003222497939731899,
            -0.004331248838934871,
            -0.014303104314351703,
            -0.038682092051345825,
            -0.05189955264649132,
            -0.05173872549177023,
            -0.02910528597277763,
            0.012040035058246508,
            0.028194105973076648,
            0.03039396836627966,
            0.027357075563632455,
            -0.008953838796989133,
            -0.046178742108332775,
            -0.06805438085008085,
            -0.06761054880976125,
            -0.0619412930165634,
            -0.04611547967748774,
            -0.0326146019634295,
            -0.02734295327021715,
            -0.016317588207424915,
            -0.00901317401374288,
            -0.002169676865062256,
            0.00009145662894093708,
            0.00014628009165052933,
            0.0005167431794765696,
            0.00004851064331885926,
            0.0002921970885296779,
            0.00017437157948219252,
            -0.0013151844334261657,
            -0.0046279828404007526,
            -0.017056896064190096,
            -0.03630628738369359,
            -0.04669650284412038,
            -0.04274926810386609,
            -0.017123465175830372,
            0.007744071731104035,
            0.015553251750806851,
            0.0022158709080498345,
            -0.019229626395166143,
            -0.025669015822226377,
            -0.04662322973636662,
            -0.057484802033750705,
            -0.06162619624696419,
            -0.05724667037503091,
            -0.04636349539993989,
            -0.03418077216540951,
            -0.019710454877693157,
            -0.013143732966242244,
            -0.007929294938397035,
            -0.0042435784369892725,
            -0.0009080804001044224,
            0.0007215141032609201,
            0.00030823541353816483,
            0.00031743546617897886,
            0.000964065706134122,
            0.000602218391210733,
            -0.0018364773285671732,
            -0.004126716826413054,
            -0.015286791192392278,
            -0.025646540872365016,
            -0.033301254305321194,
            -0.025236330716028404,
            -0.0008634088812000968,
            0.007978469654314578,
            -0.0027482199382136527,
            -0.030364532034609284,
            -0.03781499329694643,
            -0.02776526051189627,
            -0.032023881570891845,
            -0.04065090693481154,
            -0.045479049239528065,
            -0.04058830154589328,
            -0.03483235763754997,
            -0.024614101945160328,
            -0.014959068387343752,
            -0.009124974172444183,
            -0.005146013112592163,
            -0.0035837870932401436,
            -0.0000767898489624888,
            0.002411561829363953,
            0.0010311432512876617,
            0.0008155307754694,
            0.0007837082657388065,
            0.0009276426699858166,
            0.00008079117901790395,
            -0.002179190807295068,
            -0.007375968967084081,
            -0.009712934679459,
            -0.01597912979687104,
            -0.0004408934874610291,
            0.015435726948866585,
            0.007365998486902613,
            -0.014839103195008451,
            -0.040332343547653034,
            -0.025607517273964178,
            -0.013666676139358664,
            -0.01663076737196209,
            -0.01613109549910865,
            -0.02166389961376541,
            -0.02252241587619859,
            -0.016749687830271816,
            -0.011742672054338512,
            -0.005613758200470727,
            -0.0030502923625028407,
            -0.001127002186573386,
            0.0001403506286507582,
            0.00003802582126316025,
            0.0007910483961519896,
            0.0008490354611940752,
            0.001010983502023715,
            0.0007644171623589136,
            0.0010843822548941143,
            -0.00009361848172851368,
            -0.00184462449839161,
            -0.0030719749578100963,
            -0.004299071335646821,
            -0.0039176389907552844,
            0.00695231277229171,
            0.021271796804334536,
            -0.00020459311630987312,
            -0.026475908034864163,
            -0.04220615303979272,
            -0.027351661466122907,
            -0.018994218494039407,
            -0.00946771916086436,
            -0.006347019499267901,
            -0.010102828701903283,
            -0.01107501291116239,
            -0.00877368615138382,
            -0.005425435686279476,
            -0.0017348401806039505,
            -0.0008027505444874958,
            -0.000901087279268431,
            0.0005320170094396361,
            0.00013723645503035668,
            0.0008420455019185516,
            0.0005135646387220373,
            0.0008248702957906194,
            0.000029604416005506657,
            0.001035532258014188,
            0.000339094495794451,
            -0.0008664146340822594,
            -0.0018903028001983665,
            -0.003658760889352667,
            -0.010231091338731143,
            -0.013829553438662273,
            -0.007931234360580998,
            -0.016849013386660627,
            -0.025977368874429717,
            -0.02916960024359964,
            -0.03459569858585553,
            -0.02920312231700327,
            -0.021680220812093223,
            -0.020561497235858556,
            -0.014122256060638326,
            -0.011648112634695906,
            -0.008066753684675878,
            -0.003905077520165747,
            -0.001834912728395112,
            0.00009698339490500132,
            0.0002805207049671753,
            0.0004585274238124058,
            0.0007863886374832542,
            0.001146525951381595,
            0.0004692305022987781,
            0.0012175500627489052,
            0.0008977048559416619,
            0.00069580325331735,
            0.0007153966576023748,
            -0.0008032317700950738,
            -0.0030451079499292585,
            -0.005306998887246321,
            -0.007894384498123642,
            -0.011413308484469132,
            -0.015720412215064723,
            -0.02050728620366083,
            -0.01664166871923917,
            -0.015248434047703846,
            -0.01687274007425398,
            -0.013278077209766884,
            -0.01074429253768681,
            -0.009794824040538738,
            -0.0049507320544645095,
            -0.0031496973167055037,
            -0.0014060852518863742,
            -0.0006589044952610119,
            -0.00006442865774559924,
            0.0004649039220134816,
            0.0011960954445134606,
            0.00020259614930556884,
            0.00008569068160008696,
            0.0006453811889287908,
            0.0011756965478958627,
            0.0009006687593861142,
            0.000206791267046446,
            0.0011792162759296926,
            0.0003976055711033446,
            -0.0012379403229919996,
            -0.0014624214253370058,
            -0.0028747513748784534,
            -0.003979818547076775,
            -0.0052060795817930015,
            -0.005340721675190555,
            -0.004763977907651292,
            -0.005158899555101356,
            -0.004783851961320203,
            -0.005743473617690024,
            -0.004301520210748925,
            -0.003658980774025504,
            -0.004422318748613378,
            -0.003275144764360469,
            -0.001351816051476057,
            -0.0001755905328086688,
            0.0008533529642039294,
            0.0007849612759913825,
            0.0010741937675873212,
            0.0004115111381297901,
            0.0011422758245058211,
            0.000500544395333746,
            0.0004264340369828345,
            0.001079570926211594,
            0.00037007745212521207,
            0.0004706173947241357,
            0.0005918931261538949,
            0.000726126259925151,
            0.00023177955719598945,
            0.0001692869614707526,
            -0.00009110458320161652,
            -0.0010768009301548977,
            0.0005509497127355574,
            0.00010697034789373976,
            0.0007933206180828268,
            0.0005915035477809428,
            -1.1269579138579382e-6,
            -0.0007699030698965179,
            -0.00011174405132702888,
            0.0004674755213983518,
            0.0000851946115995434,
            0.0010758766407125452,
            -0.000494634535578795,
            0.00018223253649676623,
            0.0012715819111426437,
            0.0008141674117946845,
            0.0008444719146435867,
            0.000760403235259511,
            0.00028221701152632083,
            0.0012535629309552928,
            0.0006153880622807017,
            0.0004938523189920822,
            0.0003917164147054383,
            0.000566845215463995,
            0.0008108681182887636,
            0.0011062923444555674,
            0.0010889528351720377,
            0.0009590935720153992,
            0.0010030017619555025,
            0.0006145288091008676,
            0.0001559294894091039,
            0.0004069620715719342,
            0.00012377302820328572,
            0.000022077822681988738,
            0.0005112149223972386,
            0.0012510021513943066,
            0.0006240158444723606,
            0.0006944306474445601,
            0.0011825798978834393,
            0.00034632042453412384,
            0.0006871968507563818,
            0.000863488343004038,
            0.0012626773727272746,
            0.0009273728100155788,
            0.0003413208462107373,
            0.0005663634087115654,
            0.0005055224915814705,
            0.000571379369411946,
            0.0011891068654706414,
            0.00029298712856903913,
            0.0012146246804113944,
            0.0007011358477965091,
            0.0001885617493563149,
            0.0007388778629860516,
            0.0010798275139917515,
            0.0010788239631784363,
            0.0007930608216280149,
            0.0009731193177609572,
            0.0010669730824402,
            0.0004241316273673924,
            0.00015486970474874685,
            -0.0007033159233479257,
            0.0010706169480274562,
            0.0002810612544698073,
            -0.0005487646209838519,
            -0.001315360950620008,
            -0.00045207976280346577,
            0.00026370360549904604,
            0.00004489920576693997,
            0.00087557541986261,
            0.0011833580256711109,
            0.00039271966859287066,
            0.00008624835212755635,
            0.0007780481890197309,
            0.000226490310874159,
            0.001053300151723247,
            0.0006550942316729722,
            0.0004054583231377135,
            0.0008065095089654279,
            0.0010938111152117274,
            0.000901305953978,
            1.7050608039512476e-6,
            0.00025396684732112906,
            0.0006420102002857112,
            0.000654812376153998,
            0.0008528615511666809,
            0.001030260949352664,
            0.0001044431628665915,
            -0.0006029813875636935,
            -0.00048556323218048144,
            0.004665770251053807,
            0.0039665647523712735,
            0.0011571559888718702,
            -0.001356040284660939,
            -0.007434283432663199,
            -0.009000602063582362,
            -0.007363015812614016,
            -0.0051287132546482764,
            -0.0014652906855379254,
            -0.0007504465416274875,
            -0.00013499006800430692,
            -2.99028523024758e-6,
            0.001200713477711271,
            0.0005288323253984378,
            0.0010700915622855315,
            0.00040528672948931746,
            0.001111516237315496,
            0.0007859748931773081,
            0.00014039708022813013,
            0.0002933691533306497,
            0.0012184839748967558,
            1.6309773909087671e-6,
            0.001164014375349695,
            0.0018472627013258725,
            0.007952986207857232,
            0.0107447245838427,
            0.012145001509418924,
            0.016000186991825642,
            0.017776071650932555,
            0.019285233509973063,
            0.01825486715590636,
            0.01046448764364563,
            0.004906076464911995,
            0.006619042571432401,
            0.006857297185787694,
            0.004947120163375912,
            0.005922009175406292,
            0.0018092575975369096,
            0.00040343397456029544,
            0.00041516906851336047,
            0.0004664855806929654,
            0.00003418437293847633,
            0.0011527786075921534,
            0.0001663750484766111,
            0.00007963940717643185,
            0.0006884767700941451,
            0.0004169855441373308,
            0.0007446199442208383,
            0.0009318484916260502,
            0.003689034386280843,
            0.005581153816112922,
            0.006466340439385337,
            0.014691412541641972,
            0.018578925370912523,
            0.01646015626484327,
            0.025500301002565624,
            0.03213526932472151,
            0.04041052353607821,
            0.040884024215953475,
            0.04101271399582713,
            0.03310885876071265,
            0.02675488631151683,
            0.020258693036821054,
            0.017782371173989082,
            0.011364550190003328,
            0.004753163023571529,
            -0.004366127554499268,
            -0.002082344814966031,
            0.0005877323156805842,
            0.0010549945228734712,
            0.0008320216948901816,
            0.0009363716386280494,
            0.0008331506824722189,
            0.0012296556146660707,
            0.0006276581952406618,
            0.0006479358666346568,
            0.0014538822891790022,
            0.010825357605742542,
            0.013969075931938546,
            0.016279825817194258,
            0.01835758057067304,
            0.018277961628956185,
            0.028297431949964463,
            0.041623283432354954,
            0.039516516526443835,
            0.04016991964587509,
            0.0392136767852818,
            0.03544212196282269,
            0.04400254471049137,
            0.03875336033850834,
            0.019747268639410457,
            0.010254539583254762,
            0.015636477106990055,
            0.006543355901446482,
            -0.0055192740822973315,
            -0.011164054719381896,
            -0.0021259546540494884,
            0.000359106647426845,
            0.0011164173008572976,
            0.0002170487959359736,
            0.0006092267215422393,
            0.00026647832689362806,
            0.0004660911078606125,
            -0.001775295508653666,
            -0.0005128523692744119,
            0.008307152022471507,
            0.008609412027604976,
            0.012677023654363424,
            0.0122288205073043,
            0.011047188837188068,
            0.01575337542503761,
            0.02610022888916403,
            0.030152569977117696,
            0.019546258683378424,
            0.004461811779478082,
            0.010796839512410228,
            0.01618148713855416,
            0.009859067839839643,
            0.004353280095915202,
            0.005933427677024449,
            0.014795852276834956,
            0.010163661493221073,
            -0.0017670992102059395,
            -0.01244728697361578,
            -0.0066540674594668045,
            -0.0014348867613446364,
            0.0005422212166693764,
            -0.000021901354956247967,
            0.0007219231468576826,
            0.0001336765733898085,
            0.0011214870484925004,
            -0.0029913601354677327,
            -0.0034285358569831636,
            0.002560267221195496,
            0.007925636644142777,
            0.003710779742763835,
            -0.004616592735643236,
            -0.011068495820087275,
            -0.009151028366255054,
            -0.005173458736532295,
            -0.0039881205248551025,
            -0.019874128282417063,
            -0.034305617036272495,
            -0.031684195862066125,
            -0.029926797313582654,
            -0.03266479360775795,
            -0.022221210590992697,
            -0.007657367659055427,
            0.004015575149548725,
            0.011316628377697046,
            0.004057790486654059,
            -0.014008951698101534,
            -0.010321889799133885,
            -0.00591284396815032,
            -0.0010680493621900969,
            0.00047556942702529583,
            0.0012223254893114852,
            0.00006591739175118798,
            0.0007948749027192829,
            -0.003652846861700303,
            0.000893696901502771,
            0.00453024086260848,
            0.001257684253156005,
            -0.006020455005689938,
            -0.017007000417063156,
            -0.019505787763309416,
            -0.03047305725604299,
            -0.03264098229386878,
            -0.03897771060765399,
            -0.06803545143945672,
            -0.06942986020094544,
            -0.06280772977549809,
            -0.06515741871213254,
            -0.05186704293894575,
            -0.03340835621698324,
            -0.0281609961865861,
            -0.0036003996961664264,
            0.004210227048270304,
            -0.005771012108003414,
            -0.01615822406780158,
            -0.01206189599807684,
            -0.007412418040734974,
            0.0006805346643610086,
            0.0008500599474834643,
            0.001038825546992138,
            0.0007569292191934102,
            0.00015384149011284437,
            -0.0027931027610717143,
            -0.0003687018004609156,
            -0.000799596592618879,
            -0.003736320954188638,
            -0.01792606872818465,
            -0.02730417191128624,
            -0.03591099273629954,
            -0.043464891681717514,
            -0.05684372524887803,
            -0.07100863732035691,
            -0.08790110056776268,
            -0.08422893629682665,
            -0.07382978721730481,
            -0.07309163527228271,
            -0.05079016181739371,
            -0.037863449100607086,
            -0.0303097979408579,
            -0.00820660058358464,
            -0.0016108049244835448,
            -0.011849439684174758,
            -0.015685443248027568,
            -0.01317558656090051,
            -0.0032818080892363403,
            0.0009971756915427028,
            0.0005819034957601747,
            0.0005744508431046205,
            0.0007742551564382606,
            0.0008649573981988919,
            -0.0029315346842117233,
            -0.003459061675450635,
            -0.008378820974332703,
            -0.014549872708196836,
            -0.02536284290797076,
            -0.04177398149049153,
            -0.05846593917533638,
            -0.07660135709860381,
            -0.0905729872923463,
            -0.10016589771045104,
            -0.09939583296892474,
            -0.08757165878809438,
            -0.07054584056550059,
            -0.05341998198888152,
            -0.03429676955163519,
            -0.025567972060691765,
            -0.009809047738995364,
            0.0038667716338461463,
            0.005745712372924429,
            -0.0047197912572245395,
            -0.010989833702975236,
            -0.006490603860500417,
            -0.0007814086246638001,
            0.00018973509670465032,
            0.00113395488617978,
            0.001125093236706159,
            0.00021282007096611185,
            -0.00003229386966640578,
            -0.002183129418924482,
            -0.00567223114641913,
            -0.01529504745082464,
            -0.024242304173242364,
            -0.03796384780739283,
            -0.05782078939888473,
            -0.08093565092230977,
            -0.1009497553954386,
            -0.11509463518702462,
            -0.10981760281217996,
            -0.10312593720312029,
            -0.09057354569563886,
            -0.06279629034561479,
            -0.04218173358164149,
            -0.02597537018107441,
            -0.016881659000195774,
            0.007857696413676335,
            0.017350724933717608,
            0.008889422661581077,
            -0.01235483631004309,
            -0.013162657304764649,
            -0.00592138080242739,
            0.0010290854407038587,
            0.0006916321803574273,
            0.0005177881362077766,
            0.0012520851746822485,
            0.0012527742928119018,
            0.0006753291763137161,
            -0.0019205277937297716,
            -0.008207922338618553,
            -0.01667967183601839,
            -0.03024984498538913,
            -0.05177254871272363,
            -0.06648597901635413,
            -0.09275647474504364,
            -0.10935901689116198,
            -0.11184207122878768,
            -0.098745390551199,
            -0.09437208141442796,
            -0.07579580995979479,
            -0.0648802378686992,
            -0.0507857098660163,
            -0.032812803961632525,
            -0.01509172839201125,
            0.014521225429341362,
            0.01954393439189239,
            -0.0020718229796186714,
            -0.02290440928534704,
            -0.015475461784721254,
            -0.006819068389072699,
            0.000745672930800943,
            0.00007999625993126678,
            0.0008342088762702617,
            0.000401083523170142,
            1.288192414815456e-6,
            -0.00006927207269723878,
            -0.001307869691830642,
            -0.008218459569191892,
            -0.019774937047495916,
            -0.03392355978831462,
            -0.055316298610826806,
            -0.0705003401740574,
            -0.08851675582404044,
            -0.09443949535008864,
            -0.08281516868791879,
            -0.06966144191291992,
            -0.07288243992623723,
            -0.06878444223831454,
            -0.06580012029413765,
            -0.05470953796758524,
            -0.037633226627821134,
            -0.006901263316927888,
            0.0154309559635278,
            0.003854731078733665,
            -0.02144965813066187,
            -0.02582174506504543,
            -0.01609951167087135,
            -0.007283146233094112,
            0.000477459734491881,
            0.0010107462816384882,
            0.0008071612653421848,
            0.000494660163554482,
            0.000409274108631821,
            0.0009456071324821428,
            -0.0014798976595947234,
            -0.008504758875586434,
            -0.023465647351452512,
            -0.03551709590417642,
            -0.04980383247500278,
            -0.048616765963918424,
            -0.04458303463516329,
            -0.052322365748447515,
            -0.033703544498936935,
            -0.02385139756551451,
            -0.03447998731238392,
            -0.048310278622742606,
            -0.0584047013459092,
            -0.050612069042056416,
            -0.030520486820815654,
            -0.007669038600160396,
            -0.006592325835078763,
            -0.01924067496819146,
            -0.03756353629567596,
            -0.029231073584436423,
            -0.020302061674122646,
            -0.00621958342952062,
            0.001172991546074234,
            0.0006974172673626587,
            0.000678799464822198,
            0.000843092005181765,
            0.000889160405467544,
            0.0012120421592464385,
            -0.0004370132775154614,
            -0.005622169546693142,
            -0.02005396555982691,
            -0.026448615852399663,
            -0.021377514397275747,
            -0.01642110510465647,
            -0.013026341816535558,
            0.0004182798540867761,
            0.021471116288092396,
            0.012593337550987916,
            -0.010746225044339584,
            -0.0344618850965089,
            -0.0437269654511669,
            -0.03522316614720641,
            -0.015609197720485194,
            -0.005366385307958351,
            -0.020197578782698337,
            -0.02846516132344118,
            -0.03497776871981422,
            -0.020120693121102564,
            -0.01063707283320329,
            -0.004517861194659953,
            0.004589707518040303,
            0.0025323432816554995,
            0.0012726065943448222,
            0.0008490289872960668,
            0.0009921363888807323,
            0.0012070664360422638,
            0.0010260237593562637,
            -0.0010111727964607362,
            -0.004437589128259225,
            0.0027672869889197884,
            0.003231850231569633,
            0.007105987339990604,
            0.020036580792313775,
            0.024259244838133465,
            0.03413200532230863,
            0.024422139528566176,
            -0.007553737254276815,
            -0.03541457558218478,
            -0.02124852915312232,
            -0.006199144285688366,
            0.0013683094179455938,
            -0.002763781174878842,
            -0.017018558120197282,
            -0.018565895471401903,
            -0.012942071938827395,
            -0.003278784824101567,
            -0.00037194300283934737,
            0.006283241141001638,
            0.004579985605169978,
            0.0016614880095384857,
            0.0006287283492216625,
            0.000618610749701816,
            0.0008278762216685619,
            0.0005550867054068264,
            0.003425456566431779,
            0.008868949779525409,
            0.02398961068264988,
            0.037710865306192005,
            0.030007269561560232,
            0.026376659854019956,
            0.028744066724435573,
            0.026313400587769088,
            0.0188282454004557,
            0.0133502616937767,
            -0.002802087547706957,
            -0.017715664561474727,
            -0.00621246146772811,
            -0.005024773826588116,
            -0.004335728457737824,
            -0.007479555796928003,
            -0.008386540268208186,
            -0.0020018585680373,
            0.011960226180485593,
            0.02138315356936772,
            0.024642143663551056,
            0.017264771363184918,
            0.010054313575018878,
            0.000030680388760847825,
            0.0010082183566502657,
            0.0008482484097383343,
            0.001055204213236031,
            -0.00014542507744928147,
            0.005168098145196585,
            0.02507625411332843,
            0.054319281146126296,
            0.06497621552686404,
            0.04865034662031891,
            0.031526972637965854,
            0.030223508862109425,
            0.019018248137366824,
            0.02556659760072548,
            0.03535447890127977,
            0.008974218616644526,
            -0.0034764649815126076,
            -0.008753079652248176,
            -0.010231107574187015,
            -0.010233002322956668,
            -0.013122791115974568,
            -0.00610311622027573,
            0.023630218195101513,
            0.03221474436016843,
            0.03193677085356856,
            0.025952092940007138,
            0.017940315520888366,
            0.005304456384739812,
            0.00011694533543563116,
            0.0005701786102040262,
            0.0004053404094185773,
            0.0002455840882167544,
            0.0017572375677352126,
            0.012459026063102795,
            0.044437940260196145,
            0.07146467835555284,
            0.07859313304082606,
            0.05942818442526777,
            0.03970896475531501,
            0.030500186238691888,
            0.02149563795826535,
            0.027893583762101826,
            0.01973227748409945,
            0.0024127385960038233,
            -0.01791592738569586,
            -0.02304381960950102,
            -0.011760173646757906,
            -0.0023257979224993734,
            0.0012441264613191265,
            0.016124004062220854,
            0.023248902549650844,
            0.02594220493732329,
            0.02355245188583745,
            0.01501034968417476,
            0.007746871338929912,
            0.002609037820873224,
            0.0011802946022987297,
            0.0004772356285354231,
            0.0005096066396185512,
            0.0009226983208019496,
            0.003682924288037921,
            0.016960476156863764,
            0.04849568476491958,
            0.07287750734452696,
            0.0788433822898273,
            0.06032823323253584,
            0.02932927955773157,
            0.014237755143408722,
            0.0086201728700745,
            0.007670914059661572,
            -0.00717453245155487,
            -0.02001891494168851,
            -0.03603511500133505,
            -0.0371923783422425,
            -0.013420629706559002,
            -0.01002461537809675,
            0.008228882275149188,
            0.029096508640123107,
            0.02668847886423643,
            0.013599670443628746,
            0.015217050318433527,
            0.01531517106231369,
            0.010409687524921676,
            0.00351926646389045,
            0.000040113423073679504,
            0.00019477160400085673,
            0.0001024581029272509,
            0.0008111149911788011,
            0.0026866139419821286,
            0.013698472478015242,
            0.038486991129404145,
            0.06474864785362572,
            0.06482319538553234,
            0.05459607939233159,
            0.020377457782931787,
            0.0010727714675854852,
            -0.014262372238013812,
            -0.024735195290991996,
            -0.0330570950943403,
            -0.045049041372247654,
            -0.05713648354507326,
            -0.053509286870225894,
            -0.03462677247651804,
            -0.012968955408907796,
            0.007523761548865548,
            0.013407860931914827,
            0.015089437461663625,
            0.01037515109001708,
            0.017253445043618955,
            0.016660191256473916,
            0.00945692176064845,
            0.0013360483176485323,
            0.0003452281710764116,
            0.0005003356366416501,
            0.0005647828869787368,
            0.0003952549733693564,
            0.000505531889426876,
            0.0031176693726584176,
            0.017302757525953436,
            0.03597591426156933,
            0.033698402388828506,
            0.024905043723908463,
            -0.003055196598100831,
            -0.025023929978143223,
            -0.039610746158175864,
            -0.056584806600303725,
            -0.06341602978075424,
            -0.07706521776550461,
            -0.0846098756461477,
            -0.07123331008177806,
            -0.04452864241115984,
            -0.02807620051657889,
            -0.01347725035097515,
            -0.0051805155498086085,
            0.0007959866521357184,
            0.00516519512239081,
            0.010598343729610157,
            0.005409173943790201,
            0.0020435400587160276,
            0.00030502264616126627,
            0.0003656343405248818,
            0.000019885273003198658,
            0.0003900214077867197,
            0.00004768721063707048,
            0.0010727197811850322,
            0.0017036515166982034,
            0.005693800069725383,
            0.008659354038107673,
            0.005530628083914017,
            -0.012332111692171905,
            -0.040990530135704445,
            -0.06229674846953519,
            -0.06972194099534695,
            -0.07239274424121246,
            -0.06744936509739334,
            -0.06879816711041546,
            -0.07194333395110794,
            -0.05487043157512447,
            -0.03827384665055205,
            -0.030498751089402223,
            -0.02095846907907099,
            -0.011434165724542254,
            -0.003756309344302037,
            0.0023207057227951876,
            0.0040465085039439646,
            0.004003091711573553,
            0.000403951938066466,
            0.0008030723729102235,
            0.0007298692476287427,
            0.0007384405242568493,
            0.0007524962989780083,
            0.0004622155759143099,
            0.0012691753974874583,
            0.0003761871649933529,
            0.0003886989633041697,
            -0.002491933307182404,
            -0.00784347643980578,
            -0.014807698811248883,
            -0.021093624082188775,
            -0.03058720407881234,
            -0.03808261276584908,
            -0.03632034982632865,
            -0.032084019584749296,
            -0.034298489082640854,
            -0.0381585836628632,
            -0.027709451312304963,
            -0.021865513438841213,
            -0.018774057363449115,
            -0.013334153632185602,
            -0.005286881598336675,
            -0.002108565857862,
            0.0017919642625210822,
            -0.00076916156643857,
            0.00017122678702182034,
            0.00044563277882341874,
            0.00009656583441434428,
            0.0012221719832777977,
            0.0004814614500694102,
            0.0006649625365439905,
            0.0004888150257718884,
            0.0007385947564869399,
            0.00004437566410736219,
            0.0005471288301040697,
            -0.0023154601353429696,
            -0.004395535206393195,
            -0.00700908890356053,
            -0.008771580873655987,
            -0.01206042942954662,
            -0.015328190606885832,
            -0.011770968944931804,
            -0.012417065292415735,
            -0.013439074277319092,
            -0.012070109025988984,
            -0.01126179685690072,
            -0.011886724331263076,
            -0.006813143814503185,
            -0.005364008935791914,
            -0.0032655616430873656,
            -0.0005234388512802398,
            -0.0001666774875120084,
            0.0005927429701770256,
            -0.0003115132987287211,
            0.0008420254584868704,
            0.00047206919436532834,
            0.000424221529469054,
            0.0006513927093071088,
            0.0007705238488009098,
            0.0010193368689288182,
            0.00035826712308824956,
            0.0009462713008236428,
            -0.00006883174423535449,
            -0.00040290959186830015,
            -0.0015657466154500783,
            -0.0027772093555388355,
            -0.004784712475584208,
            -0.004687067716568112,
            -0.0037511690650618296,
            -0.002934935276212099,
            -0.003737694477370579,
            -0.005905153043657706,
            -0.005215971561753709,
            -0.005386961051166011,
            -0.004330055039009007,
            -0.0032275899956224277,
            -0.002187147031937368,
            -0.0013180422909557375,
            0.00044903136743486814,
            0.0009284458563864185,
            0.00031443773267780036,
            0.0004316353640664863,
            0.00013573826760672055,
            0.00025487087008009074,
            0.00024799825696063656,
            0.001020672186643701,
            0.0008930776376604435,
            0.0003628865110813993,
            0.00041566308734861254,
            0.0004824263046218148,
            0.00002919895994810695,
            -0.0001533733193586039,
            -0.0004025670127368176,
            -0.0003210579462314529,
            0.0007423829620590726,
            0.0004194055328219129,
            0.0010031968384941006,
            0.00004714759851740245,
            -0.0002293813331287548,
            -0.0005622626314565285,
            0.000830672263665901,
            0.0007993939318039302,
            -0.00006393851001956842,
            0.00011994398907611042,
            -0.0006160035992515328,
            7.690074554624765e-6,
            0.0007608563513782068,
            0.0012062999277830428,
            0.0010938198201421992,
            0.0007466728518312012,
            0.001043602172461615,
            0.0010943066621857118,
            0.00016561910300744306,
            0.0007708308058303453,
            0.0003260075063104584,
            0.0003209062243237277,
            0.0009877840172958436,
            0.00026545007400887,
            0.0005141594490304812,
            0.00022473635440471593,
            0.0004320694641202632,
            0.0009081729551400134,
            0.000740880019299845,
            0.0011151677322761005,
            0.000596830243269918,
            0.0012125105656850526,
            0.0003270657920900089,
            0.000054130306049531826,
            0.0002795050304449095,
            0.0006284006753132696,
            0.00039541809743651234,
            0.0007184324669659257,
            0.001202399225855591,
            0.0000721889596199325,
            0.0010392832703508966,
            0.00011445817625622684,
            0.001191092918886433,
            0.0006052251438318724,
            0.0002761324826902348,
            0.0008241283800214954,
            0.0009627153914771854,
            0.00015634224937104371,
            0.00112498552098043,
            0.0005494829426800181,
            0.00007990536760862864,
            0.00010206015513184264,
            0.0006987265719873153,
            0.0006492491337964865,
            0.0008414910545447418,
            0.0010232280596144158,
            0.00029350701825155,
            0.00001485838129433422,
            0.0006092442396578127,
            0.00044443372278273453,
            0.001272616221726378,
            0.000638951149026632,
            0.0001958513765021929,
            0.00041484270014279943,
            -0.000053314706356244286,
            0.0007452740193975184,
            0.0005186796530265503,
            0.00006849248672677643,
            0.0010069702553117223,
            0.000262934378907143,
            0.0009982130698896338,
            0.0010254338999448854,
            0.00021145949556594909,
            0.0009498738977626472,
            0.0006589667835616246,
            0.00007059487217051247,
            0.0007473408051309734,
            0.0006082380816925805,
            0.0005077223409964265,
            0.0004236287858129851,
            0.00032679513074257427,
            0.0011395322724722435,
            0.0010823931763339271,
            0.0004037050466899421,
            0.00040399547104364705,
            0.00007987701213876874,
            0.00026098576839069995,
            -0.0003357777110955744,
            -0.0005574251951953838,
            -0.0010634816448991486,
            -0.0008125738503859428,
            -0.001380395030668797,
            -0.0025879067785637413,
            -0.004666814458102324,
            -0.0030667096533320633,
            -0.0010716307378537614,
            0.00004288073808294537,
            0.0008326987184521209,
            0.00015484150050687682,
            0.0011552300108839532,
            0.0003218852722247571,
            0.0006225479303017174,
            0.00020228329425957625,
            0.0008047106565373082,
            0.0010720650821624909,
            0.0012085232521380214,
            0.0001382122486493914,
            0.0009601686771630144,
            0.0005955398383892651,
            0.0011799600057920462,
            0.0004930793867699073,
            0.00038658153283946736,
            0.0009899566732341888,
            0.0023519740226065427,
            0.0019174001436586968,
            0.001302996608535656,
            -0.0005126657430311455,
            -0.001314378439799168,
            -0.008197470879886606,
            -0.011784090625205872,
            -0.013488770705184706,
            -0.011684340717720978,
            -0.009122227365665227,
            -0.005085656513491553,
            -0.0030834334146495313,
            -0.0013121430482459274,
            0.0001933389807013015,
            0.0003767852769126785,
            0.0002275889320805487,
            0.0007651259948295933,
            0.0006640702514186912,
            0.00016629707088571487,
            0.0006353874371231327,
            0.00019953978382663027,
            0.0010996259189545614,
            0.0004468527419517371,
            0.0007155738748360192,
            0.000357044389869734,
            -0.00004020300730986836,
            0.0010598373991897935,
            -0.00021513231271555033,
            -0.00122400684174067,
            0.006735020258553601,
            0.009124274713629204,
            0.004452325422044863,
            0.002645354301192589,
            0.0014604339879055331,
            0.006757751684880313,
            0.011225059925813527,
            0.014093663413369876,
            0.011873549229868592,
            0.0013659710932303918,
            -0.009962009832667273,
            -0.01431611579886508,
            -0.012079021042672604,
            -0.004600590702205903,
            0.0003957997573768873,
            0.0003933722775161244,
            0.0009506019662530346,
            0.0006699918787457849,
            0.00007199390728674835,
            0.0005166763586839713,
            0.001173617083747716,
            0.00021107289591386344,
            0.00030002776328093126,
            -0.001116938913792645,
            0.0006708782817866884,
            0.006708270511684617,
            0.008933418232755817,
            0.01941376075332274,
            0.027556545545359988,
            0.028055088196251816,
            0.028183061463861632,
            0.03212710041014227,
            0.024550502116176685,
            0.01409526170614954,
            0.01897458659334157,
            0.01216421081942229,
            0.008665954003079663,
            0.00028241338111573844,
            -0.002149963205896478,
            -0.013868388777836632,
            -0.021546380174159965,
            -0.012154746806045908,
            -0.003944497670743913,
            -0.0005326002457704127,
            0.00016757995298686697,
            0.00004304823662893601,
            0.0008629010536203083,
            0.00031796109913937874,
            0.00037062220800901374,
            0.0011321643632678264,
            0.0011538471828208103,
            0.004107762387415022,
            0.009580548379022292,
            0.01941878922643264,
            0.027587037563142073,
            0.033025913879026,
            0.03754439493916464,
            0.04868223882535207,
            0.04672642127601048,
            0.03445813456132389,
            0.016315568485306464,
            0.009684454598155642,
            0.008503713870292487,
            -0.00332726637221144,
            -0.003119124541193561,
            0.00968599564641782,
            0.02030471256356676,
            0.004443117853754409,
            -0.008101409084124152,
            -0.012442564785726666,
            -0.006626795202510821,
            -0.00042254520631923847,
            0.0009096856579868276,
            0.0002536324260138435,
            0.0010887804294057116,
            0.0005048335246924336,
            0.0007377802569386889,
            0.007037699537103825,
            0.006967822092868209,
            0.009256081597504032,
            0.014793988363192147,
            0.011951401435892012,
            0.018829693738544085,
            0.02132571353152779,
            0.028991899067570253,
            0.025981274055713027,
            0.01785351055397071,
            -0.012306336977262015,
            -0.025583434511353684,
            -0.026992110249530004,
            -0.032985328856032996,
            -0.02383902565673338,
            -0.011948264323571278,
            0.002838593225054238,
            0.019186162928779452,
            0.011100020117703715,
            0.001151897288284175,
            -0.010601983146440846,
            -0.0087400469791727,
            -0.003769036407389528,
            -0.0006680809434151835,
            0.0010665493022673112,
            0.000515998194903694,
            0.0004317327928243176,
            0.0007954695747144897,
            0.007631102445276054,
            0.008388821588024186,
            0.004988699614440732,
            -0.0010522624431383613,
            -0.005633241187117403,
            -0.008858385388124883,
            -0.008039591084235718,
            -0.011006570067704197,
            -0.03130337237096105,
            -0.056485356354817905,
            -0.08112609844600242,
            -0.07673319731259272,
            -0.05040464343549677,
            -0.030589080251925995,
            -0.02882723709233347,
            -0.012245246188996872,
            -0.002659366321297206,
            0.008153913408840011,
            -0.0009526056189955176,
            -0.002455379180042896,
            -0.006056889408270634,
            -0.008721518447485201,
            -0.005761678128854493,
            0.00003264615860952418,
            0.000987050687500993,
            0.0004641360758483915,
            0.00011790338252601092,
            0.00015907933651433686,
            0.004646853367505181,
            0.004078355662678451,
            -0.001420655259032061,
            -0.01249343858093052,
            -0.01971154593261505,
            -0.035014586707537015,
            -0.0477988364955572,
            -0.06576688965004776,
            -0.08839088527057669,
            -0.10230475364270514,
            -0.10184643420787104,
            -0.07397547128167177,
            -0.02753556927563317,
            -0.003561172338698142,
            -0.01067813857006683,
            -0.008278237379551977,
            -0.009005179178637876,
            -0.00788996760081349,
            -0.012940255105349064,
            -0.008672681048893837,
            -0.006641727641340625,
            -0.006338312605957351,
            -0.0022079749456875965,
            0.0010302166164218203,
            0.0005463530835894959,
            0.00005485726677910871,
            0.0007547084869565808,
            -0.00031994362409727944,
            0.002661997372424728,
            -0.001492090407306195,
            -0.011086126959800251,
            -0.019603097927031715,
            -0.0341452353303967,
            -0.053517058468733274,
            -0.07733539136927438,
            -0.0977451909992387,
            -0.10880791910606843,
            -0.09614690458297104,
            -0.06913966414686233,
            -0.02621548284264877,
            0.017235006959842116,
            0.028447116677403166,
            0.01025628978789525,
            -0.004637569434919667,
            -0.019385560767490023,
            -0.028600714914767095,
            -0.02491117631511617,
            -0.014113663293618245,
            -0.005695635473015415,
            -0.0031923163013048293,
            0.0005792337376852926,
            0.0006390480916583017,
            0.0005248542002363734,
            0.00044784035523267153,
            0.0009098772702163656,
            0.00061662360626116,
            -0.00194752926563418,
            -0.006916978212117752,
            -0.017555374854677085,
            -0.027162927872236932,
            -0.04297641819756468,
            -0.06326933604097476,
            -0.08241716190512641,
            -0.09635740739846126,
            -0.08440796693699751,
            -0.04537626151033361,
            -0.008351028146008962,
            0.03414031793555758,
            0.04694514966900651,
            0.034400296715152406,
            0.011722846266590762,
            -0.006834697401021631,
            -0.03571364752663569,
            -0.04045362778900149,
            -0.03143867573683739,
            -0.015560946467227868,
            -0.007938277551042238,
            -0.0035757466458617463,
            0.0006191730565275974,
            0.001142362024100479,
            0.00008803158986274003,
            0.00028857171109730566,
            0.0003451235001961398,
            0.0011376668306137267,
            -0.002755237004201205,
            -0.007836755886691681,
            -0.017623570788736827,
            -0.030981009500907535,
            -0.04900750695519552,
            -0.05735075303506582,
            -0.07125542008278504,
            -0.05557652125588654,
            -0.019786192189530656,
            0.018771493753585576,
            0.043608600825412056,
            0.04817407609255982,
            0.038523715616247865,
            0.01807443992463508,
            -0.00035731938220422415,
            -0.024819904365738506,
            -0.04586521666465765,
            -0.04763678081484226,
            -0.031914817101717445,
            -0.018277189321119897,
            -0.01179296812740411,
            -0.003723342352070683,
            0.00007498296069806744,
            0.000031120269606372634,
            0.0007086744346879727,
            0.000827438064501927,
            0.0009352941786293686,
            0.00009409096823905254,
            -0.0012287090265664404,
            -0.005009348759512317,
            -0.015596790262939366,
            -0.026615561282810896,
            -0.03774505649083371,
            -0.04388723527346432,
            -0.04475808615314742,
            -0.007558942359575703,
            0.030609788760586752,
            0.06040117908876234,
            0.038559576581256576,
            0.01482737220293302,
            0.0033267864122459067,
            0.009653574566978927,
            0.00684478797699463,
            -0.014010711974776026,
            -0.030804934104771167,
            -0.03330184272042952,
            -0.03262623302002862,
            -0.019128907286422272,
            -0.01087697218854323,
            -0.004827504652069665,
            0.0006164145227661091,
            0.0008061795142240578,
            0.0006169681580258492,
            0.0011639848389916692,
            0.0009415607621675868,
            0.00023663592182734497,
            -0.000907604577745189,
            -0.004384648529266831,
            -0.01501862088558742,
            -0.02354781061723034,
            -0.03131483735801303,
            -0.03510500786667326,
            -0.02106199928722805,
            -0.003827438678510224,
            0.027696917736323524,
            0.03293794846948247,
            -0.009677859205138388,
            -0.03456488607824648,
            -0.024570786631480733,
            0.007272645894545457,
            0.01259577405120732,
            0.015951999021179605,
            -0.005036016083105371,
            -0.022024535387274388,
            -0.02244320960408351,
            -0.01810711117909793,
            -0.012008854562932492,
            -0.0063411676812037765,
            0.00005993685118329749,
            0.00003713487141122754,
            0.0005473409267926441,
            0.00002811498097999848,
            0.00012297561294305338,
            0.0011420210386014031,
            -0.001015355114165253,
            -0.004960246266155238,
            -0.017648313346250135,
            -0.029477318032046017,
            -0.03741285681556909,
            -0.044499753477437586,
            -0.03672384315484977,
            -0.0338347325425281,
            -0.02408405955266164,
            -0.036400343418045746,
            -0.07821938842510012,
            -0.08838498928719767,
            -0.06815935938749886,
            -0.016851480517767383,
            0.010299006525454214,
            0.01955649184504347,
            0.009595745035706787,
            -0.01414769888170766,
            -0.016961581213791755,
            -0.014599185132804572,
            -0.01356299196359526,
            -0.006727590969011678,
            -0.001294684644905226,
            -0.0006865147977200718,
            0.0008398328215361696,
            0.0010236957674325516,
            0.00014348189210943848,
            0.0005418333279877159,
            -0.00005713064522297757,
            -0.005466889107288086,
            -0.016552388339465443,
            -0.030200306693145513,
            -0.03923955901912059,
            -0.05348256922793409,
            -0.05979069457420917,
            -0.06032131019910983,
            -0.07240971647094176,
            -0.09493997043223525,
            -0.11662611074765064,
            -0.12135490369298504,
            -0.09184228642049933,
            -0.036711360675032695,
            0.014535460375214035,
            0.020427670731020232,
            0.006488808594491059,
            -0.0029025921002666937,
            -0.011227076869429515,
            -0.009378344154302852,
            -0.009384623080735987,
            -0.005704415874867469,
            -0.0003658982421982346,
            0.0008771079588092316,
            0.00024761962901515537,
            0.0007252618523317621,
            0.0008284720418878546,
            0.0005358717007377401,
            0.0014169909443424507,
            0.005394381958228163,
            -0.004783184067994267,
            -0.03081039231911543,
            -0.04494537290406935,
            -0.05382212701422286,
            -0.0534361479215407,
            -0.0657783686181346,
            -0.08692209832658288,
            -0.09884079514420428,
            -0.12274084082795438,
            -0.12605402392837853,
            -0.09135638230089174,
            -0.03633732677900136,
            0.0123732968264516,
            0.03281180793048796,
            0.012685231459895774,
            -0.001959701842544523,
            -0.004000963911749507,
            -0.002860554507275809,
            -0.008087452315762923,
            -0.004838854996518349,
            -0.0005328585851081475,
            0.00048515960833370625,
            0.0006779091959031203,
            0.00020406110236012828,
            0.0010538433677260803,
            0.00028005166817127365,
            0.006468606173911379,
            0.014355841587508428,
            0.006864595728681344,
            -0.0309439582137496,
            -0.04705057925535197,
            -0.053103753223908104,
            -0.0578112968906782,
            -0.07005546176883425,
            -0.07432526164801093,
            -0.08948718665536563,
            -0.1093825112527805,
            -0.1096451644337616,
            -0.07410402326526631,
            -0.016656193206535122,
            0.020003378180780823,
